Language model created by QuickLM on Mon Jun  3 16:16:21 EDT 2019
Copyright (c) 1996-2010 Carnegie Mellon University and Alexander I. Rudnicky

The model is in standard ARPA format, designed by Doug Paul while he was at MITRE.

The code that was used to produce this language model is available in Open Source.
Please visit http://www.speech.cs.cmu.edu/tools/ for more information

The (fixed) discount mass is 0.5. The backoffs are computed using the ratio method.
This model based on a corpus of 5 sentences and 11 words

\data\
ngram 1=11
ngram 2=14
ngram 3=9

\1-grams:
-0.8808 </s> -0.3010
-0.8808 <s> -0.2398
-1.5798 AIDE -0.2398
-1.5798 ASSISTANT -0.2398
-1.5798 CERVEAU -0.2398
-1.5798 COMMANDES -0.2398
-1.5798 DÉMARRE -0.2894
-1.5798 LANCE -0.2894
-1.5798 LISTE -0.2894
-1.5798 STOP -0.2894
-1.5798 ÉCOUTE -0.2398

\2-grams:
-1.0000 <s> AIDE 0.0000
-1.0000 <s> DÉMARRE 0.0000
-1.0000 <s> LANCE 0.0000
-1.0000 <s> LISTE 0.0000
-1.0000 <s> STOP 0.0000
-0.3010 AIDE </s> -0.3010
-0.3010 ASSISTANT </s> -0.3010
-0.3010 CERVEAU </s> -0.3010
-0.3010 COMMANDES </s> -0.3010
-0.3010 DÉMARRE CERVEAU 0.0000
-0.3010 LANCE ASSISTANT 0.0000
-0.3010 LISTE COMMANDES 0.0000
-0.3010 STOP ÉCOUTE 0.0000
-0.3010 ÉCOUTE </s> -0.3010

\3-grams:
-0.3010 <s> AIDE </s>
-0.3010 <s> DÉMARRE CERVEAU
-0.3010 <s> LANCE ASSISTANT
-0.3010 <s> LISTE COMMANDES
-0.3010 <s> STOP ÉCOUTE
-0.3010 DÉMARRE CERVEAU </s>
-0.3010 LANCE ASSISTANT </s>
-0.3010 LISTE COMMANDES </s>
-0.3010 STOP ÉCOUTE </s>

\end\
