Language model created by QuickLM on Tue Jun  4 02:12:37 EDT 2019
Copyright (c) 1996-2010 Carnegie Mellon University and Alexander I. Rudnicky

The model is in standard ARPA format, designed by Doug Paul while he was at MITRE.

The code that was used to produce this language model is available in Open Source.
Please visit http://www.speech.cs.cmu.edu/tools/ for more information

The (fixed) discount mass is 0.5. The backoffs are computed using the ratio method.
This model based on a corpus of 13 sentences and 32 words

\data\
ngram 1=32
ngram 2=45
ngram 3=34

\1-grams:
-0.9652 </s> -0.3010
-0.9652 <s> -0.2472
-2.0792 ASSISTANT -0.2512
-2.0792 CERVEAU -0.2512
-2.0792 CHANSON -0.2512
-2.0792 CHANTE -0.2974
-2.0792 COMMANDES -0.2512
-2.0792 DIAGNOSTIQUES -0.2512
-2.0792 DIRE -0.2512
-2.0792 DIT -0.2512
-2.0792 DONNE -0.2974
-2.0792 DU -0.2937
-2.0792 DÉMARRE -0.2974
-2.0792 EST-IL -0.2512
-2.0792 FERME -0.2974
-2.0792 HEURE -0.2974
-2.0792 INTERNET -0.2512
-2.0792 J'AI -0.2974
-1.7782 JOUR -0.2472
-2.0792 LA -0.2974
-1.6021 LANCE -0.2900
-2.0792 LISTE -0.2974
-2.0792 MAIL -0.2512
-2.0792 MÉTÉO -0.2512
-2.0792 NOUS -0.2512
-2.0792 NOUVELLES -0.2974
-2.0792 QU'EST-CE -0.2937
-1.7782 QUE -0.2937
-2.0792 QUEL -0.2937
-2.0792 QUELLE -0.2974
-2.0792 SOMMES -0.2974
-2.0792 UNE -0.2974

\2-grams:
-1.4150 <s> CHANTE 0.0000
-1.4150 <s> DONNE 0.0000
-1.4150 <s> DÉMARRE 0.0000
-1.4150 <s> FERME 0.0000
-0.9379 <s> LANCE 0.0000
-1.4150 <s> LISTE 0.0000
-1.4150 <s> NOUVELLES 0.0000
-1.4150 <s> QU'EST-CE 0.0000
-1.4150 <s> QUE -0.1761
-1.4150 <s> QUEL 0.0000
-1.4150 <s> QUELLE 0.0000
-0.3010 ASSISTANT </s> -0.3010
-0.3010 CERVEAU </s> -0.3010
-0.3010 CHANSON </s> -0.3010
-0.3010 CHANTE UNE 0.0000
-0.3010 COMMANDES </s> -0.3010
-0.3010 DIAGNOSTIQUES </s> -0.3010
-0.3010 DIRE </s> -0.3010
-0.3010 DIT </s> -0.3010
-0.3010 DONNE LA 0.0000
-0.3010 DU JOUR -0.1761
-0.3010 DÉMARRE CERVEAU 0.0000
-0.3010 EST-IL </s> -0.3010
-0.3010 FERME ASSISTANT 0.0000
-0.3010 HEURE EST-IL 0.0000
-0.3010 INTERNET </s> -0.3010
-0.3010 J'AI DIT 0.0000
-0.6021 JOUR </s> -0.3010
-0.6021 JOUR SOMMES 0.0000
-0.3010 LA MÉTÉO 0.0000
-0.7782 LANCE DIAGNOSTIQUES 0.0000
-0.7782 LANCE INTERNET 0.0000
-0.7782 LANCE MAIL 0.0000
-0.3010 LISTE COMMANDES 0.0000
-0.3010 MAIL </s> -0.3010
-0.3010 MÉTÉO </s> -0.3010
-0.3010 NOUS </s> -0.3010
-0.3010 NOUVELLES DU 0.0000
-0.3010 QU'EST-CE QUE -0.1761
-0.6021 QUE DIRE 0.0000
-0.6021 QUE J'AI 0.0000
-0.3010 QUEL JOUR -0.1761
-0.3010 QUELLE HEURE 0.0000
-0.3010 SOMMES NOUS 0.0000
-0.3010 UNE CHANSON 0.0000

\3-grams:
-0.3010 <s> CHANTE UNE
-0.3010 <s> DONNE LA
-0.3010 <s> DÉMARRE CERVEAU
-0.3010 <s> FERME ASSISTANT
-0.7782 <s> LANCE DIAGNOSTIQUES
-0.7782 <s> LANCE INTERNET
-0.7782 <s> LANCE MAIL
-0.3010 <s> LISTE COMMANDES
-0.3010 <s> NOUVELLES DU
-0.3010 <s> QU'EST-CE QUE
-0.3010 <s> QUE DIRE
-0.3010 <s> QUEL JOUR
-0.3010 <s> QUELLE HEURE
-0.3010 CHANTE UNE CHANSON
-0.3010 DONNE LA MÉTÉO
-0.3010 DU JOUR </s>
-0.3010 DÉMARRE CERVEAU </s>
-0.3010 FERME ASSISTANT </s>
-0.3010 HEURE EST-IL </s>
-0.3010 J'AI DIT </s>
-0.3010 JOUR SOMMES NOUS
-0.3010 LA MÉTÉO </s>
-0.3010 LANCE DIAGNOSTIQUES </s>
-0.3010 LANCE INTERNET </s>
-0.3010 LANCE MAIL </s>
-0.3010 LISTE COMMANDES </s>
-0.3010 NOUVELLES DU JOUR
-0.3010 QU'EST-CE QUE J'AI
-0.3010 QUE DIRE </s>
-0.3010 QUE J'AI DIT
-0.3010 QUEL JOUR SOMMES
-0.3010 QUELLE HEURE EST-IL
-0.3010 SOMMES NOUS </s>
-0.3010 UNE CHANSON </s>

\end\
